-0.021669374778866768
-0.31708085536956787
0.30892202258110046
0.303547203540802
0.05167518928647041
0.3631914556026459
-0.055882394313812256
-0.3652074635028839
-0.09116224944591522
-0.055655479431152344
0.07763951271772385
0.01545332558453083
-0.30476999282836914
0.12744012475013733
-0.0526111014187336
-0.3064049184322357
-0.5404418706893921
-0.15357251465320587
-0.013232843019068241
-0.660733163356781
-0.3127770721912384
0.08153215050697327
0.4876672923564911
0.014492708258330822
-0.15389639139175415
-0.15715305507183075
-0.2669294774532318
-0.11594284325838089
-0.27996140718460083
0.2051219791173935
-0.6366307735443115
0.008408910594880581
-0.38075897097587585
-0.0023032634053379297
-0.11398471146821976
0.0032449010759592056
0.0010545572731643915
-0.9084412455558777
-0.7021276354789734
-0.09438065439462662
0.04102043807506561
-0.2133427858352661
0.07061509788036346
-0.5059472918510437
0.2440558224916458
0.6476870179176331
-0.24740315973758698
-0.12427268177270889
-0.0015072223031893373
0.00030532744131051004
0.23551902174949646
0.3265385925769806
-0.5418545603752136
-0.04593215882778168
-0.054113760590553284
0.668648362159729
-0.44118058681488037
-0.025978462770581245
0.5287250280380249
0.8009699583053589
-0.3806118965148926
-0.10034970939159393
0.24740615487098694
0.004241966642439365
-0.08918121457099915
0.061927467584609985
0.4053497910499573
-0.03367478400468826
-0.19747571647167206
-0.007003301754593849
0.2190496027469635
0.0543927438557148
-0.10537923127412796
0.004178938455879688
0.08976800739765167
0.30047228932380676
0.005256187170743942
0.11206389963626862
-0.20293933153152466
-0.04662032425403595
0.316706120967865
-0.023248029872775078
-0.1163211241364479
-0.10208439826965332
-0.28248879313468933
-0.1992681622505188
-0.003933162894099951
0.028277689591050148
0.2891620695590973
0.03709486871957779
-0.1686347872018814
-0.11782177537679672
-0.05384526401758194
0.4017215073108673
0.013378593139350414
0.04160798341035843
-0.007906327955424786
0.15735769271850586
0.06074180454015732
0.2756502032279968
-0.6658884286880493
-0.18788683414459229
0.3918408453464508
-0.35076943039894104
-0.4980156719684601
-0.0013675816589966416
-0.014253327623009682
0.33536389470100403
0.542758047580719
-0.03885720670223236
-0.1376352161169052
0.24348337948322296
0.46208542585372925
-0.10042773187160492
0.018390925601124763
-0.14876912534236908
-0.07511349022388458
0.21825730800628662
-0.36184829473495483
0.30405154824256897
0.13573437929153442
0.3454219102859497
-0.07790719717741013
-0.32141730189323425
-0.17755703628063202
-0.021810347214341164
0.19456802308559418
0.040575556457042694
0.18954843282699585
-0.03423425555229187
-0.037923768162727356
-0.061952024698257446
0.12771379947662354
-0.20888376235961914
0.998451828956604
0.026347801089286804
-0.1666189283132553
0.01993444189429283
-0.16285893321037292
0.000808721175417304
-0.021896954625844955
0.4192955195903778
-0.10171648859977722
0.09765897691249847
-0.7647232413291931
-0.02781839855015278
0.2807309329509735
-0.3252556025981903
0.2973683476448059
-0.18754220008850098
0.49784940481185913
-0.1558503806591034
-0.04084344953298569
-0.2228165715932846
-0.6635520458221436
-8.859610534273088e-05
0.5807149410247803
-0.2568678557872772
-0.24913324415683746
0.14151379466056824
-0.0881868377327919
0.0042137629352509975
-0.12375583499670029
0.0015639114426448941
-0.07608004659414291
-0.16105015575885773
0.19225764274597168
-0.996298611164093
-0.4073265492916107
-0.5230295062065125
0.14704418182373047
-0.0013788827927783132
-0.5798622965812683
0.09578855335712433
0.08531305938959122
0.5151863694190979
-0.07593593746423721
-0.010090790688991547
0.25594642758369446
0.32031014561653137
0.18525727093219757
0.1608707308769226
-0.18640106916427612
0.038963682949543
-0.12907765805721283
-0.0022584327962249517
-0.003907690290361643
0.15396246314048767
-0.010531860403716564
0.009603400714695454
0.445309042930603
0.06113850325345993
-0.2246377170085907
-0.6733713746070862
0.20426063239574432
-0.07661513239145279
0.0675898864865303
0.8324521780014038
0.12840595841407776
0.06354548782110214
0.1722838133573532
0.7988894581794739
-0.01464711781591177
-0.17565491795539856
0.003932655788958073
-0.7929169535636902
-0.035815849900245667
-0.4151311218738556
-0.24319994449615479
0.0019647309090942144
-0.1706462949514389
-0.0652015432715416
-0.044592566788196564
-0.589504599571228
-0.6928478479385376
-0.10466280579566956
-0.0009066661586984992
-0.0004487355472519994
-0.1243496760725975
0.06149033457040787
-0.4895249307155609
0.02700616978108883
0.15094096958637238
-0.43662557005882263
-0.08464141190052032
-0.5921634435653687
-0.6082121133804321
-0.050074245780706406
-0.014541937969624996
-0.0007944469689391553
0.26793619990348816
-0.14574815332889557
0.0020299460738897324
-0.02445116639137268
-0.4131116569042206
-0.9615599513053894
-0.17225274443626404
-0.7929540276527405
0.8742266893386841
0.10156548768281937
0.03723837062716484
0.01828235760331154
-0.08434989303350449
0.008380629122257233
0.7580132484436035
-0.06847769767045975
-0.009575801901519299
-0.11733126640319824
0.15642647445201874
0.43423932790756226
-0.09338661283254623
0.27278852462768555
0.5732010006904602
-0.0489305779337883
0.16721105575561523
0.22020627558231354
0.13044965267181396
0.01961538754403591
-0.06698473542928696
-0.1345568150281906
0.025031324476003647
-0.40688765048980713
-0.020649584010243416
-0.03636403754353523
-0.03617449477314949
0.0416552796959877
-0.5928335785865784
0.6015538573265076
-0.10654164850711823
-0.4387842118740082
0.3452906012535095
-0.03369559347629547
-0.30813729763031006
0.04808454588055611
0.03853945806622505
0.06715274602174759
-0.18182696402072906
0.3756861090660095
0.8999770879745483
0.04998398199677467
0.0014372727600857615
0.006722802761942148
-0.10158401727676392
0.1025903970003128
0.09445154666900635
-0.1644798219203949
-0.5694999694824219
-0.03388803452253342
0.3644125759601593
-0.5138248205184937
-0.11195927858352661
0.3296484649181366
0.31136181950569153
0.04031989723443985
-0.01047256775200367
-0.3035096228122711
-0.07376980036497116
0.11725309491157532
-0.43493279814720154
0.24407894909381866
-0.6109941601753235
-0.28239840269088745
0.2614632248878479
0.16649338603019714
-0.121527299284935
-0.09077588468790054
-0.23247461020946503
0.0025067797396332026
0.3432571291923523
-0.00033323868410661817
-0.555141270160675
-0.0438852496445179
0.0055545298382639885
0.516289234161377
-0.0366089828312397
-0.17607443034648895
-0.029109857976436615
-0.417252779006958
0.00012837002577725798
-0.16015958786010742
-0.09684644639492035
0.16317133605480194
0.015432464890182018
0.04961223900318146
-0.1711956113576889
-0.08387124538421631
-0.5122114419937134
-0.5271881818771362
-0.16539984941482544
-0.005862030200660229
-0.02175273932516575
0.3161845803260803
0.9929948449134827
0.062406864017248154
-0.03713217005133629
0.21095632016658783
0.27629926800727844
0.007970275357365608
-0.12523791193962097
-0.22332385182380676
-0.48112785816192627
0.18205800652503967
-0.14877371490001678
0.004328345414251089
0.004373366944491863
-0.6332772970199585
-0.001087604439817369
0.311387836933136
-0.3664679527282715
0.11529269814491272
0.0047695389948785305
0.4371822774410248
0.7133554220199585
0.06199668347835541
0.47268009185791016
-0.21376800537109375
-0.3003031015396118
0.07640014588832855
-0.21236570179462433
-0.035324882715940475
0.07566235959529877
0.850926399230957
0.07857869565486908
-0.525103747844696
-0.21074268221855164
-0.01556432619690895
-0.05755296349525452
0.4217853248119354
-0.13758456707000732
-0.1557852327823639
-0.4669661223888397
-0.033859461545944214
0.002842701505869627
0.41003358364105225
-0.5444970726966858
0.0853997990489006
-0.039309244602918625
-0.15667268633842468
-0.040526457130908966
0.03071574866771698
0.3422016203403473
-0.0990939736366272
-0.2167319506406784
-0.02089669741690159
0.039521217346191406
0.0739012360572815
-0.21150097250938416
-0.10831797122955322
-0.047716546803712845
0.0339079387485981
0.37705549597740173
0.02339121326804161
-0.4615415036678314
-0.449859619140625
0.03337320685386658
0.002546871080994606
-0.5174594521522522
0.3799135386943817
-0.3763788342475891
-0.18804697692394257
0.00942081119865179
0.7167872786521912
-0.04008334130048752
0.13650232553482056
-0.0017262467881664634
-0.09943825751543045
0.0003322208358440548
-0.040548644959926605
-0.040334030985832214
0.8628717064857483
0.17364558577537537
-0.04232556000351906
-0.15701915323734283
-0.3950592279434204
-0.167428657412529
0.1497664451599121
-0.21394869685173035
-0.0731816366314888
-0.164023756980896
0.2432590276002884
-0.1780218780040741
0.221389040350914
0.041899438947439194
0.23757809400558472
-0.025103220716118813
-0.6366963386535645
-0.5372949838638306
0.0010304269380867481
-0.002790489699691534
-0.22621910274028778
0.0025146985426545143
0.48995694518089294
0.12018205970525742
0.0467505119740963
0.4446406662464142
-0.4251859784126282
0.07195987552404404
-0.2851056754589081
0.0036330060102045536
0.06677553802728653
0.02756318263709545
-0.004844988696277142
-0.2579873204231262
-0.013982931151986122
0.01986437849700451
0.32230865955352783
-0.03521481901407242
0.26849910616874695
0.2479219138622284
0.1182345598936081
0.7063106298446655
0.48446834087371826
0.2807002663612366
0.28084734082221985
0.2988390326499939
-0.007649855688214302
0.034813590347766876
0.0015707644633948803
0.018607642501592636
-0.9845186471939087
0.12491550296545029
-0.12527616322040558
0.05316275730729103
0.470171183347702
-0.01600436121225357
0.0242412481456995
0.005128145217895508
-0.25957751274108887
0.5130605697631836
-0.043108876794576645
7.275975804077461e-05
0.3604877293109894
-0.5947234034538269
-0.1348627507686615
0.034588735550642014
0.2725644111633301
0.12066402286291122
-0.5883349776268005
0.9431331753730774
0.6347172856330872
-0.4390411674976349
0.17905524373054504
-0.01683894172310829
0.21446549892425537
-0.18154937028884888
0.36631685495376587
0.19640006124973297
-0.1673099547624588
0.02736656926572323
0.5319797396659851
0.08737824857234955
-0.903751790523529
-0.04686359316110611
-0.4065261483192444
0.35494428873062134
0.004933022428303957
0.1288646012544632
0.006683748681098223
-0.19125963747501373
-0.15077438950538635
0.05669209361076355
0.3345935046672821
0.27637311816215515
0.012687252834439278
-0.008521976880729198
-0.31354957818984985
0.051389724016189575
0.17161880433559418
0.0672840029001236
-0.006132880225777626
-0.16560745239257812
0.09100449085235596
-0.061062075197696686
0.21730567514896393
-0.012456811964511871
-0.004742508754134178
0.1543477475643158
0.06663946807384491
0.041427139192819595
0.04481489956378937
-0.002113083377480507
0.015175673179328442
0.11476954817771912
-0.01789057068526745
-0.060197118669748306
-0.07946190237998962
0.1620536893606186
-0.014458714984357357
0.06523076444864273
-0.22886203229427338
0.24369773268699646
0.015493075363337994
-0.049424298107624054
0.02328403852880001
0.024432800710201263
0.06730633974075317
0.060666684061288834
-0.06844834238290787
0.013116785325109959
0.05471460148692131
-0.08043935149908066
-0.08108829706907272
-0.07862706482410431
0.010598928667604923
0.06600259244441986
0.01746085099875927
-0.06149277091026306
-0.06748801469802856
0.1098627969622612
-0.027978722006082535
-0.05732223019003868
-0.09384921193122864
-0.05965975672006607
0.10781463235616684
0.06226182356476784
-0.420032799243927
0.049384765326976776
0.1380196511745453
0.06121223047375679
-0.03484964370727539
-0.15825003385543823
0.07600948214530945
-0.04006268084049225
-0.004973534494638443
-0.10363662987947464
-0.08277799934148788
-0.06187538802623749
-0.0022754294332116842
-0.17538470029830933
0.12394338846206665
0.026083962991833687
-0.13826321065425873
-0.1702709197998047
-0.07143387943506241
0.05695461481809616
0.11442139744758606
0.2611607015132904
-0.03908669948577881
0.03183595836162567
-0.1713491976261139
0.21935510635375977
0.10927759855985641
0.13742473721504211
-0.0847710371017456
-0.06489614397287369
0.07753897458314896
-0.04198328033089638
-0.1388830989599228
0.09544946253299713
-0.051253415644168854
-0.09739700704813004
0.0708959549665451
-0.01816059835255146
0.012027227319777012
-0.07058306783437729
0.025446847081184387
-0.02170659229159355
0.03299107030034065
0.039557214826345444
-0.10377734154462814
-0.012894958257675171
0.08501086384057999
0.05988147109746933
-0.054787687957286835
-0.009806093759834766
0.09592022001743317
-0.04555848240852356
0.1007985770702362
0.01580904982984066
-0.10155054181814194
0.08336755633354187
-0.006672149058431387
0.0023841909132897854
-0.04896584153175354
0.03885940462350845
-0.16509254276752472
-0.01872817613184452
-0.04564988240599632
-0.037923794239759445
0.053465310484170914
0.05379032343626022
0.0007724221795797348
-0.008797376416623592
0.05690687149763107
0.11489308625459671
-0.26492148637771606
-0.1841581016778946
0.033614907413721085
0.026716655120253563
0.036027852445840836
-0.04324277117848396
0.009266795590519905
0.04868213087320328
-0.0698106437921524
0.06872086226940155
-0.06968626379966736
-0.0423741415143013
-0.0649903193116188
-0.009055730886757374
-0.0639306828379631
-0.047618318349123
-0.04632274806499481
0.01385729480534792
-0.12627524137496948
0.011132333427667618
-0.03050590492784977
-0.026311039924621582
0.044594764709472656
-0.05643324926495552
-0.011540470644831657
0.08500884473323822
-0.13307738304138184
0.012584391050040722
-0.04075909033417702
0.08404108136892319
-0.03727811947464943
-0.07078982144594193
0.0644272193312645
-0.05000303313136101
0.02204098366200924
-0.07376357913017273
-0.024669604375958443
0.43011772632598877
0.07780779898166656
0.05595052242279053
0.09223107993602753
-0.01396225206553936
-0.11342315375804901
-0.05005912482738495
-0.07889378815889359
-0.06524549424648285
0.00010630713222781196
0.014661286026239395
-0.0059565166011452675
-0.0860293060541153
0.054421812295913696
0.07291929423809052
-0.07753966748714447
-0.037691935896873474
0.07339639216661453
0.16625002026557922
0.01115878950804472
-0.09879817813634872
0.03987722843885422
-0.12734511494636536
0.0015115130227059126
-0.044458065181970596
-0.14144492149353027
-0.018084736540913582
0.009127706289291382
0.1388220638036728
-0.11457892507314682
0.1807134449481964
0.11441031098365784
-0.015640437602996826
-0.05026823654770851
0.1068878099322319
-0.005178805440664291
0.08989600092172623
0.04173649474978447
0.16962790489196777
0.014736673794686794
-0.05559214949607849
-0.033804114907979965
-0.019422773271799088
0.041198864579200745
-0.13402147591114044
-0.10907001793384552
-0.01972542330622673
0.15671855211257935
-0.20337742567062378
0.13319100439548492
-0.0851091668009758
-0.08249107748270035
-0.04386221617460251
-0.04533426836133003
0.030622117221355438
-0.016334330663084984
-0.09049468487501144
-0.04347604513168335
-0.04533974453806877
0.09252816438674927
-0.002277781954035163
0.019789129495620728
-0.02748079039156437
-0.01688479073345661
-0.3629167377948761
0.04379021003842354
0.021925967186689377
0.1125146746635437
0.025093432515859604
0.12943066656589508
0.17338183522224426
0.05165236070752144
0.04449182376265526
-0.13219627737998962
0.04199628531932831
0.010725213214755058
0.07193508744239807
-0.11829196661710739
-0.06596732884645462
0.029617447406053543
0.02047228254377842
0.16151200234889984
-0.11488927900791168
0.02235141023993492
-0.03534364700317383
0.10041268914937973
-0.0384245291352272
0.006394312251359224
-0.026461591944098473
0.00643473444506526
-0.07073055952787399
0.09351687878370285
0.1433483064174652
-0.04345493018627167
0.001640052767470479
-0.006481487769633532
-0.05459688603878021
0.058037444949150085
0.16687023639678955
-0.06760014593601227
-0.13167926669120789
-0.08659050613641739
0.04098839312791824
-0.03989182785153389
0.13100938498973846
0.15694040060043335
0.04596198722720146
0.07511138916015625
0.06308584660291672
0.1609264761209488
0.1985931098461151
0.018449710682034492
0.031578224152326584
-0.038820963352918625
0.018662700429558754
-0.059287331998348236
-0.06260475516319275
0.060535043478012085
-0.04742426425218582
0.07166536152362823
0.03930122032761574
0.011106777936220169
-0.034178268164396286
-0.015514880418777466
0.09167138487100601
-0.04574495181441307
0.10777603834867477
0.026206588372588158
0.075893335044384
-0.05526446923613548
0.05332386866211891
6.178140756674111e-05
-0.004283222369849682
-0.06738065928220749
-0.043466273695230484
0.03974693641066551
0.04848914593458176
-0.018696287646889687
0.02785099484026432
-0.12598800659179688
-0.3023931682109833
-0.3060457408428192
-0.0509871169924736
-0.038156911730766296
-0.012450150214135647
0.11725492030382156
0.1383739560842514
0.08655142039060593
0.02018994651734829
0.060887400060892105
0.03493303433060646
0.03424576297402382
0.10722259432077408
-0.017466649413108826
0.07380855083465576
0.018426014110445976
-0.18825289607048035
0.043800238519907
0.1403883546590805
0.04835696890950203
-0.238039031624794
-0.0007482297951355577
0.15033933520317078
-0.03051798976957798
0.05718664452433586
-0.08546756953001022
-0.10960960388183594
-0.054779790341854095
0.21218857169151306
0.0638953372836113
0.0575648732483387
0.05756881460547447
0.013304349035024643
0.0013655369402840734
0.04622908681631088
0.03716466203331947
-0.08601310849189758
-0.2589752674102783
0.09096186608076096
-0.032475270330905914
-0.02409004606306553
-0.08277899771928787
0.001047921017743647
-0.03621203824877739
-0.016214683651924133
0.12912020087242126
0.10011960566043854
0.07298818230628967
0.0017532574711367488
-0.06253368407487869
-0.06376627087593079
-0.03842662647366524
-0.12316206842660904
-0.02915334142744541
-0.030809123069047928
-0.06371036916971207
-0.06568948179483414
0.00016777642304077744
-0.19087062776088715
0.04963589087128639
0.07659760117530823
-0.049592383205890656
-0.08636146038770676
-0.013160561211407185
0.05128369480371475
0.0036761946976184845
-0.05166544020175934
-0.07799853384494781
-0.07511164993047714
0.08529974520206451
0.007369742263108492
-0.2583940923213959
-0.05775843560695648
-0.02059374935925007
-0.05320189148187637
-0.03794417530298233
-0.040307965129613876
-0.046536628156900406
-0.085996113717556
0.08073404431343079
0.07018399238586426
-0.0438135489821434
0.04191095381975174
0.018606269732117653
-0.05949904024600983
-0.10753249377012253
-0.10045945644378662
-0.04747677966952324
-0.11736355721950531
-0.027165738865733147
-0.01768423244357109
-0.05879176780581474
-0.072330042719841
0.07307789474725723
-0.042208075523376465
0.009362533688545227
-0.08626454323530197
-0.05384388193488121
0.0323859378695488
0.03455347567796707
-0.04243983328342438
0.02822115831077099
0.03351467102766037
-0.08903343230485916
-0.007720156107097864
-0.02221328392624855
-0.026074448600411415
-0.0945068970322609
-0.04702692851424217
-0.07340024411678314
-0.017932601273059845
0.023010464385151863
0.06165656819939613
0.03760230541229248
-0.0551455095410347
-0.1356058269739151
0.05152690038084984
0.15516170859336853
0.05712195858359337
-0.037219107151031494
-0.062202367931604385
0.020404458045959473
0.05224863439798355
-0.024976760149002075
-0.10039062052965164
-0.02282760478556156
0.07181593775749207
0.0830681324005127
0.1230090856552124
0.09809550642967224
0.0867299884557724
0.092494897544384
0.021377667784690857
-0.11704154312610626
0.18119165301322937
-0.04424818977713585
-0.044584184885025024
0.24359895288944244
-0.06940727680921555
0.011231283657252789
0.015779070556163788
-0.08219579607248306
0.07250600308179855
-0.055741358548402786
0.00838583055883646
0.02862265147268772
0.06723809242248535
-0.19092373549938202
0.055095937103033066
0.051247239112854004
0.056521497666835785
-0.07345139235258102
0.03920796886086464
-0.060306888073682785
-0.03855738788843155
0.14776641130447388
0.07984490692615509
0.03858832269906998
-0.06297257542610168
-0.07090888917446136
0.10512711107730865
0.12574876844882965
-0.0025079844053834677
-0.07852247357368469
0.11331729590892792
0.03856612369418144
-0.00799751840531826
0.1248677670955658
0.04367795214056969
0.14497821033000946
-0.038329169154167175
-0.12688420712947845
-0.01808393932878971
0.010370324365794659
0.07583624869585037
0.0613866001367569
-0.0868576169013977
0.04630401358008385
0.02868308685719967
0.08635874837636948
0.14200548827648163
0.06280094385147095
0.018042895942926407
-0.033879511058330536
0.11588508635759354
0.03785127028822899
-0.08820722997188568
-0.030795736238360405
-0.034177515655756
0.05069006606936455
-0.21863692998886108
0.057134658098220825
-0.03451833128929138
-0.10584740340709686
0.1285008192062378
-0.05921955034136772
0.35014212131500244
-0.06423643231391907
-0.10790711641311646
0.014148385263979435
-0.05892477184534073
0.0941876545548439
0.023085664957761765
-0.048039283603429794
0.003915818408131599
0.15028047561645508
0.077737957239151
0.08371241390705109
-0.02481837570667267
-0.1362277865409851
0.04597239941358566
0.02318379655480385
-0.2469668984413147
-0.09057407081127167
-0.08316583186388016
-0.0006634894525632262
0.0669165849685669
0.051798149943351746
-0.07694357633590698
0.04670635610818863
-0.05725683271884918
0.059748079627752304
